digraph Tree {
node [shape=box, style="filled, rounded", color="black", fontname=helvetica] ;
edge [fontname=helvetica] ;
0 [label=<Weight &le; 73.79<br/>gini = 0.5<br/>samples = 10000<br/>value = [5000, 5000]<br/>class = Female>, fillcolor="#e5813900"] ;
1 [label=<Weight &le; 69.178<br/>gini = 0.184<br/>samples = 5135<br/>value = [4609, 526]<br/>class = Female>, fillcolor="#e58139e2"] ;
0 -> 1 [labeldistance=2.5, labelangle=45, headlabel="True"] ;
2 [label=<Weight &le; 65.368<br/>gini = 0.086<br/>samples = 4230<br/>value = [4039, 191]<br/>class = Female>, fillcolor="#e58139f3"] ;
1 -> 2 ;
3 [label=<Weight &le; 61.31<br/>gini = 0.043<br/>samples = 3431<br/>value = [3355, 76]<br/>class = Female>, fillcolor="#e58139f9"] ;
2 -> 3 ;
4 [label=<Weight &le; 53.418<br/>gini = 0.017<br/>samples = 2439<br/>value = [2418, 21]<br/>class = Female>, fillcolor="#e58139fd"] ;
3 -> 4 ;
5 [label=<Weight &le; 51.211<br/>gini = 0.002<br/>samples = 872<br/>value = [871, 1]<br/>class = Female>, fillcolor="#e58139ff"] ;
4 -> 5 ;
6 [label=<gini = 0.0<br/>samples = 584<br/>value = [584, 0]<br/>class = Female>, fillcolor="#e58139ff"] ;
5 -> 6 ;
7 [label=<gini = 0.007<br/>samples = 288<br/>value = [287, 1]<br/>class = Female>, fillcolor="#e58139fe"] ;
5 -> 7 ;
8 [label=<Weight &le; 53.439<br/>gini = 0.025<br/>samples = 1567<br/>value = [1547, 20]<br/>class = Female>, fillcolor="#e58139fc"] ;
4 -> 8 ;
9 [label=<gini = 0.0<br/>samples = 1<br/>value = [0, 1]<br/>class = Male>, fillcolor="#399de5ff"] ;
8 -> 9 ;
10 [label=<gini = 0.024<br/>samples = 1566<br/>value = [1547, 19]<br/>class = Female>, fillcolor="#e58139fc"] ;
8 -> 10 ;
11 [label=<Height &le; 157.424<br/>gini = 0.105<br/>samples = 992<br/>value = [937, 55]<br/>class = Female>, fillcolor="#e58139f0"] ;
3 -> 11 ;
12 [label=<Height &le; 157.398<br/>gini = 0.335<br/>samples = 80<br/>value = [63, 17]<br/>class = Female>, fillcolor="#e58139ba"] ;
11 -> 12 ;
13 [label=<gini = 0.314<br/>samples = 77<br/>value = [62, 15]<br/>class = Female>, fillcolor="#e58139c1"] ;
12 -> 13 ;
14 [label=<gini = 0.444<br/>samples = 3<br/>value = [1, 2]<br/>class = Male>, fillcolor="#399de57f"] ;
12 -> 14 ;
15 [label=<Weight &le; 61.318<br/>gini = 0.08<br/>samples = 912<br/>value = [874, 38]<br/>class = Female>, fillcolor="#e58139f4"] ;
11 -> 15 ;
16 [label=<gini = 0.0<br/>samples = 1<br/>value = [0, 1]<br/>class = Male>, fillcolor="#399de5ff"] ;
15 -> 16 ;
17 [label=<gini = 0.078<br/>samples = 911<br/>value = [874, 37]<br/>class = Female>, fillcolor="#e58139f4"] ;
15 -> 17 ;
18 [label=<Height &le; 160.051<br/>gini = 0.246<br/>samples = 799<br/>value = [684, 115]<br/>class = Female>, fillcolor="#e58139d4"] ;
2 -> 18 ;
19 [label=<Weight &le; 67.512<br/>gini = 0.482<br/>samples = 89<br/>value = [53, 36]<br/>class = Female>, fillcolor="#e5813952"] ;
18 -> 19 ;
20 [label=<Height &le; 155.594<br/>gini = 0.421<br/>samples = 63<br/>value = [44, 19]<br/>class = Female>, fillcolor="#e5813991"] ;
19 -> 20 ;
21 [label=<gini = 0.0<br/>samples = 2<br/>value = [0, 2]<br/>class = Male>, fillcolor="#399de5ff"] ;
20 -> 21 ;
22 [label=<gini = 0.402<br/>samples = 61<br/>value = [44, 17]<br/>class = Female>, fillcolor="#e581399c"] ;
20 -> 22 ;
23 [label=<Height &le; 159.51<br/>gini = 0.453<br/>samples = 26<br/>value = [9, 17]<br/>class = Male>, fillcolor="#399de578"] ;
19 -> 23 ;
24 [label=<gini = 0.278<br/>samples = 18<br/>value = [3, 15]<br/>class = Male>, fillcolor="#399de5cc"] ;
23 -> 24 ;
25 [label=<gini = 0.375<br/>samples = 8<br/>value = [6, 2]<br/>class = Female>, fillcolor="#e58139aa"] ;
23 -> 25 ;
26 [label=<Height &le; 168.076<br/>gini = 0.198<br/>samples = 710<br/>value = [631, 79]<br/>class = Female>, fillcolor="#e58139df"] ;
18 -> 26 ;
27 [label=<Height &le; 168.07<br/>gini = 0.235<br/>samples = 523<br/>value = [452, 71]<br/>class = Female>, fillcolor="#e58139d7"] ;
26 -> 27 ;
28 [label=<gini = 0.23<br/>samples = 521<br/>value = [452, 69]<br/>class = Female>, fillcolor="#e58139d8"] ;
27 -> 28 ;
29 [label=<gini = 0.0<br/>samples = 2<br/>value = [0, 2]<br/>class = Male>, fillcolor="#399de5ff"] ;
27 -> 29 ;
30 [label=<Weight &le; 65.45<br/>gini = 0.082<br/>samples = 187<br/>value = [179, 8]<br/>class = Female>, fillcolor="#e58139f4"] ;
26 -> 30 ;
31 [label=<gini = 0.5<br/>samples = 2<br/>value = [1, 1]<br/>class = Female>, fillcolor="#e5813900"] ;
30 -> 31 ;
32 [label=<gini = 0.073<br/>samples = 185<br/>value = [178, 7]<br/>class = Female>, fillcolor="#e58139f5"] ;
30 -> 32 ;
33 [label=<Height &le; 166.555<br/>gini = 0.466<br/>samples = 905<br/>value = [570, 335]<br/>class = Female>, fillcolor="#e5813969"] ;
1 -> 33 ;
34 [label=<Weight &le; 70.882<br/>gini = 0.493<br/>samples = 356<br/>value = [157, 199]<br/>class = Male>, fillcolor="#399de536"] ;
33 -> 34 ;
35 [label=<Height &le; 163.351<br/>gini = 0.476<br/>samples = 154<br/>value = [94, 60]<br/>class = Female>, fillcolor="#e581395c"] ;
34 -> 35 ;
36 [label=<Height &le; 159.945<br/>gini = 0.496<br/>samples = 68<br/>value = [31, 37]<br/>class = Male>, fillcolor="#399de529"] ;
35 -> 36 ;
37 [label=<gini = 0.36<br/>samples = 17<br/>value = [4, 13]<br/>class = Male>, fillcolor="#399de5b1"] ;
36 -> 37 ;
38 [label=<gini = 0.498<br/>samples = 51<br/>value = [27, 24]<br/>class = Female>, fillcolor="#e581391c"] ;
36 -> 38 ;
39 [label=<Height &le; 166.003<br/>gini = 0.392<br/>samples = 86<br/>value = [63, 23]<br/>class = Female>, fillcolor="#e58139a2"] ;
35 -> 39 ;
40 [label=<gini = 0.416<br/>samples = 78<br/>value = [55, 23]<br/>class = Female>, fillcolor="#e5813994"] ;
39 -> 40 ;
41 [label=<gini = 0.0<br/>samples = 8<br/>value = [8, 0]<br/>class = Female>, fillcolor="#e58139ff"] ;
39 -> 41 ;
42 [label=<Height &le; 162.213<br/>gini = 0.429<br/>samples = 202<br/>value = [63, 139]<br/>class = Male>, fillcolor="#399de58b"] ;
34 -> 42 ;
43 [label=<Height &le; 159.862<br/>gini = 0.258<br/>samples = 46<br/>value = [7, 39]<br/>class = Male>, fillcolor="#399de5d1"] ;
42 -> 43 ;
44 [label=<gini = 0.48<br/>samples = 10<br/>value = [4, 6]<br/>class = Male>, fillcolor="#399de555"] ;
43 -> 44 ;
45 [label=<gini = 0.153<br/>samples = 36<br/>value = [3, 33]<br/>class = Male>, fillcolor="#399de5e8"] ;
43 -> 45 ;
46 [label=<Height &le; 163.68<br/>gini = 0.46<br/>samples = 156<br/>value = [56, 100]<br/>class = Male>, fillcolor="#399de570"] ;
42 -> 46 ;
47 [label=<gini = 0.5<br/>samples = 36<br/>value = [18, 18]<br/>class = Female>, fillcolor="#e5813900"] ;
46 -> 47 ;
48 [label=<gini = 0.433<br/>samples = 120<br/>value = [38, 82]<br/>class = Male>, fillcolor="#399de589"] ;
46 -> 48 ;
49 [label=<Weight &le; 71.715<br/>gini = 0.373<br/>samples = 549<br/>value = [413, 136]<br/>class = Female>, fillcolor="#e58139ab"] ;
33 -> 49 ;
50 [label=<Height &le; 167.479<br/>gini = 0.302<br/>samples = 280<br/>value = [228, 52]<br/>class = Female>, fillcolor="#e58139c5"] ;
49 -> 50 ;
51 [label=<Height &le; 167.19<br/>gini = 0.429<br/>samples = 45<br/>value = [31, 14]<br/>class = Female>, fillcolor="#e581398c"] ;
50 -> 51 ;
52 [label=<gini = 0.334<br/>samples = 33<br/>value = [26, 7]<br/>class = Female>, fillcolor="#e58139ba"] ;
51 -> 52 ;
53 [label=<gini = 0.486<br/>samples = 12<br/>value = [5, 7]<br/>class = Male>, fillcolor="#399de549"] ;
51 -> 53 ;
54 [label=<Height &le; 168.067<br/>gini = 0.271<br/>samples = 235<br/>value = [197, 38]<br/>class = Female>, fillcolor="#e58139ce"] ;
50 -> 54 ;
55 [label=<gini = 0.077<br/>samples = 25<br/>value = [24, 1]<br/>class = Female>, fillcolor="#e58139f4"] ;
54 -> 55 ;
56 [label=<gini = 0.29<br/>samples = 210<br/>value = [173, 37]<br/>class = Female>, fillcolor="#e58139c8"] ;
54 -> 56 ;
57 [label=<Weight &le; 71.734<br/>gini = 0.43<br/>samples = 269<br/>value = [185, 84]<br/>class = Female>, fillcolor="#e581398b"] ;
49 -> 57 ;
58 [label=<gini = 0.0<br/>samples = 2<br/>value = [0, 2]<br/>class = Male>, fillcolor="#399de5ff"] ;
57 -> 58 ;
59 [label=<Height &le; 170.301<br/>gini = 0.426<br/>samples = 267<br/>value = [185, 82]<br/>class = Female>, fillcolor="#e581398e"] ;
57 -> 59 ;
60 [label=<gini = 0.461<br/>samples = 147<br/>value = [94, 53]<br/>class = Female>, fillcolor="#e581396f"] ;
59 -> 60 ;
61 [label=<gini = 0.367<br/>samples = 120<br/>value = [91, 29]<br/>class = Female>, fillcolor="#e58139ae"] ;
59 -> 61 ;
62 [label=<Weight &le; 78.346<br/>gini = 0.148<br/>samples = 4865<br/>value = [391, 4474]<br/>class = Male>, fillcolor="#399de5e9"] ;
0 -> 62 [labeldistance=2.5, labelangle=-45, headlabel="False"] ;
63 [label=<Height &le; 172.971<br/>gini = 0.415<br/>samples = 900<br/>value = [264, 636]<br/>class = Male>, fillcolor="#399de595"] ;
62 -> 63 ;
64 [label=<Weight &le; 75.009<br/>gini = 0.366<br/>samples = 710<br/>value = [171, 539]<br/>class = Male>, fillcolor="#399de5ae"] ;
63 -> 64 ;
65 [label=<Height &le; 165.383<br/>gini = 0.457<br/>samples = 209<br/>value = [74, 135]<br/>class = Male>, fillcolor="#399de573"] ;
64 -> 65 ;
66 [label=<Weight &le; 74.988<br/>gini = 0.255<br/>samples = 40<br/>value = [6, 34]<br/>class = Male>, fillcolor="#399de5d2"] ;
65 -> 66 ;
67 [label=<gini = 0.188<br/>samples = 38<br/>value = [4, 34]<br/>class = Male>, fillcolor="#399de5e1"] ;
66 -> 67 ;
68 [label=<gini = 0.0<br/>samples = 2<br/>value = [2, 0]<br/>class = Female>, fillcolor="#e58139ff"] ;
66 -> 68 ;
69 [label=<Height &le; 172.467<br/>gini = 0.481<br/>samples = 169<br/>value = [68, 101]<br/>class = Male>, fillcolor="#399de553"] ;
65 -> 69 ;
70 [label=<gini = 0.476<br/>samples = 166<br/>value = [65, 101]<br/>class = Male>, fillcolor="#399de55b"] ;
69 -> 70 ;
71 [label=<gini = 0.0<br/>samples = 3<br/>value = [3, 0]<br/>class = Female>, fillcolor="#e58139ff"] ;
69 -> 71 ;
72 [label=<Height &le; 169.53<br/>gini = 0.312<br/>samples = 501<br/>value = [97, 404]<br/>class = Male>, fillcolor="#399de5c2"] ;
64 -> 72 ;
73 [label=<Weight &le; 78.319<br/>gini = 0.24<br/>samples = 273<br/>value = [38, 235]<br/>class = Male>, fillcolor="#399de5d6"] ;
72 -> 73 ;
74 [label=<gini = 0.235<br/>samples = 272<br/>value = [37, 235]<br/>class = Male>, fillcolor="#399de5d7"] ;
73 -> 74 ;
75 [label=<gini = 0.0<br/>samples = 1<br/>value = [1, 0]<br/>class = Female>, fillcolor="#e58139ff"] ;
73 -> 75 ;
76 [label=<Height &le; 169.548<br/>gini = 0.384<br/>samples = 228<br/>value = [59, 169]<br/>class = Male>, fillcolor="#399de5a6"] ;
72 -> 76 ;
77 [label=<gini = 0.0<br/>samples = 3<br/>value = [3, 0]<br/>class = Female>, fillcolor="#e58139ff"] ;
76 -> 77 ;
78 [label=<gini = 0.374<br/>samples = 225<br/>value = [56, 169]<br/>class = Male>, fillcolor="#399de5ab"] ;
76 -> 78 ;
79 [label=<Weight &le; 76.876<br/>gini = 0.5<br/>samples = 190<br/>value = [93, 97]<br/>class = Male>, fillcolor="#399de50b"] ;
63 -> 79 ;
80 [label=<Weight &le; 76.046<br/>gini = 0.436<br/>samples = 109<br/>value = [74, 35]<br/>class = Female>, fillcolor="#e5813986"] ;
79 -> 80 ;
81 [label=<Height &le; 175.43<br/>gini = 0.375<br/>samples = 76<br/>value = [57, 19]<br/>class = Female>, fillcolor="#e58139aa"] ;
80 -> 81 ;
82 [label=<gini = 0.426<br/>samples = 52<br/>value = [36, 16]<br/>class = Female>, fillcolor="#e581398e"] ;
81 -> 82 ;
83 [label=<gini = 0.219<br/>samples = 24<br/>value = [21, 3]<br/>class = Female>, fillcolor="#e58139db"] ;
81 -> 83 ;
84 [label=<Height &le; 175.858<br/>gini = 0.5<br/>samples = 33<br/>value = [17, 16]<br/>class = Female>, fillcolor="#e581390f"] ;
80 -> 84 ;
85 [label=<gini = 0.48<br/>samples = 25<br/>value = [10, 15]<br/>class = Male>, fillcolor="#399de555"] ;
84 -> 85 ;
86 [label=<gini = 0.219<br/>samples = 8<br/>value = [7, 1]<br/>class = Female>, fillcolor="#e58139db"] ;
84 -> 86 ;
87 [label=<Height &le; 176.279<br/>gini = 0.359<br/>samples = 81<br/>value = [19, 62]<br/>class = Male>, fillcolor="#399de5b1"] ;
79 -> 87 ;
88 [label=<Weight &le; 78.273<br/>gini = 0.301<br/>samples = 65<br/>value = [12, 53]<br/>class = Male>, fillcolor="#399de5c5"] ;
87 -> 88 ;
89 [label=<gini = 0.271<br/>samples = 62<br/>value = [10, 52]<br/>class = Male>, fillcolor="#399de5ce"] ;
88 -> 89 ;
90 [label=<gini = 0.444<br/>samples = 3<br/>value = [2, 1]<br/>class = Female>, fillcolor="#e581397f"] ;
88 -> 90 ;
91 [label=<Weight &le; 77.013<br/>gini = 0.492<br/>samples = 16<br/>value = [7, 9]<br/>class = Male>, fillcolor="#399de539"] ;
87 -> 91 ;
92 [label=<gini = 0.0<br/>samples = 3<br/>value = [0, 3]<br/>class = Male>, fillcolor="#399de5ff"] ;
91 -> 92 ;
93 [label=<gini = 0.497<br/>samples = 13<br/>value = [7, 6]<br/>class = Female>, fillcolor="#e5813924"] ;
91 -> 93 ;
94 [label=<Weight &le; 81.277<br/>gini = 0.062<br/>samples = 3965<br/>value = [127, 3838]<br/>class = Male>, fillcolor="#399de5f7"] ;
62 -> 94 ;
95 [label=<Height &le; 173.049<br/>gini = 0.207<br/>samples = 658<br/>value = [77, 581]<br/>class = Male>, fillcolor="#399de5dd"] ;
94 -> 95 ;
96 [label=<Weight &le; 80.032<br/>gini = 0.111<br/>samples = 374<br/>value = [22, 352]<br/>class = Male>, fillcolor="#399de5ef"] ;
95 -> 96 ;
97 [label=<Weight &le; 79.982<br/>gini = 0.152<br/>samples = 230<br/>value = [19, 211]<br/>class = Male>, fillcolor="#399de5e8"] ;
96 -> 97 ;
98 [label=<gini = 0.139<br/>samples = 227<br/>value = [17, 210]<br/>class = Male>, fillcolor="#399de5ea"] ;
97 -> 98 ;
99 [label=<gini = 0.444<br/>samples = 3<br/>value = [2, 1]<br/>class = Female>, fillcolor="#e581397f"] ;
97 -> 99 ;
100 [label=<Weight &le; 81.188<br/>gini = 0.041<br/>samples = 144<br/>value = [3, 141]<br/>class = Male>, fillcolor="#399de5fa"] ;
96 -> 100 ;
101 [label=<gini = 0.015<br/>samples = 135<br/>value = [1, 134]<br/>class = Male>, fillcolor="#399de5fd"] ;
100 -> 101 ;
102 [label=<gini = 0.346<br/>samples = 9<br/>value = [2, 7]<br/>class = Male>, fillcolor="#399de5b6"] ;
100 -> 102 ;
103 [label=<Height &le; 173.075<br/>gini = 0.312<br/>samples = 284<br/>value = [55, 229]<br/>class = Male>, fillcolor="#399de5c2"] ;
95 -> 103 ;
104 [label=<Weight &le; 79.299<br/>gini = 0.444<br/>samples = 3<br/>value = [2, 1]<br/>class = Female>, fillcolor="#e581397f"] ;
103 -> 104 ;
105 [label=<gini = 0.0<br/>samples = 1<br/>value = [1, 0]<br/>class = Female>, fillcolor="#e58139ff"] ;
104 -> 105 ;
106 [label=<gini = 0.5<br/>samples = 2<br/>value = [1, 1]<br/>class = Female>, fillcolor="#e5813900"] ;
104 -> 106 ;
107 [label=<Weight &le; 81.272<br/>gini = 0.306<br/>samples = 281<br/>value = [53, 228]<br/>class = Male>, fillcolor="#399de5c4"] ;
103 -> 107 ;
108 [label=<gini = 0.302<br/>samples = 280<br/>value = [52, 228]<br/>class = Male>, fillcolor="#399de5c5"] ;
107 -> 108 ;
109 [label=<gini = 0.0<br/>samples = 1<br/>value = [1, 0]<br/>class = Female>, fillcolor="#e58139ff"] ;
107 -> 109 ;
110 [label=<Weight &le; 84.302<br/>gini = 0.03<br/>samples = 3307<br/>value = [50, 3257]<br/>class = Male>, fillcolor="#399de5fb"] ;
94 -> 110 ;
111 [label=<Weight &le; 84.299<br/>gini = 0.09<br/>samples = 659<br/>value = [31, 628]<br/>class = Male>, fillcolor="#399de5f2"] ;
110 -> 111 ;
112 [label=<Height &le; 174.952<br/>gini = 0.087<br/>samples = 658<br/>value = [30, 628]<br/>class = Male>, fillcolor="#399de5f3"] ;
111 -> 112 ;
113 [label=<gini = 0.046<br/>samples = 381<br/>value = [9, 372]<br/>class = Male>, fillcolor="#399de5f9"] ;
112 -> 113 ;
114 [label=<gini = 0.14<br/>samples = 277<br/>value = [21, 256]<br/>class = Male>, fillcolor="#399de5ea"] ;
112 -> 114 ;
115 [label=<gini = 0.0<br/>samples = 1<br/>value = [1, 0]<br/>class = Female>, fillcolor="#e58139ff"] ;
111 -> 115 ;
116 [label=<Weight &le; 88.959<br/>gini = 0.014<br/>samples = 2648<br/>value = [19, 2629]<br/>class = Male>, fillcolor="#399de5fd"] ;
110 -> 116 ;
117 [label=<Weight &le; 88.952<br/>gini = 0.035<br/>samples = 1005<br/>value = [18, 987]<br/>class = Male>, fillcolor="#399de5fa"] ;
116 -> 117 ;
118 [label=<gini = 0.033<br/>samples = 1004<br/>value = [17, 987]<br/>class = Male>, fillcolor="#399de5fb"] ;
117 -> 118 ;
119 [label=<gini = 0.0<br/>samples = 1<br/>value = [1, 0]<br/>class = Female>, fillcolor="#e58139ff"] ;
117 -> 119 ;
120 [label=<Height &le; 178.691<br/>gini = 0.001<br/>samples = 1643<br/>value = [1, 1642]<br/>class = Male>, fillcolor="#399de5ff"] ;
116 -> 120 ;
121 [label=<gini = 0.005<br/>samples = 398<br/>value = [1, 397]<br/>class = Male>, fillcolor="#399de5fe"] ;
120 -> 121 ;
122 [label=<gini = 0.0<br/>samples = 1245<br/>value = [0, 1245]<br/>class = Male>, fillcolor="#399de5ff"] ;
120 -> 122 ;
}